digraph Tree {
node [shape=box, style="filled, rounded", color="black", fontname="helvetica"] ;
edge [fontname="helvetica"] ;
0 [label="Polydipsia <= 0.5\ngini = 0.46\nsamples = 261\nvalue = [151, 265]\nclass = negative", fillcolor="#aad5f4"] ;
1 [label="Gender <= 0.5\ngini = 0.43\nsamples = 133\nvalue = [145, 65]\nclass = positive", fillcolor="#f1b992"] ;
0 -> 1 [labeldistance=2.5, labelangle=45, headlabel="True"] ;
2 [label="delayed healing <= 0.5\ngini = 0.38\nsamples = 29\nvalue = [13, 37]\nclass = negative", fillcolor="#7fbfee"] ;
1 -> 2 ;
3 [label="gini = 0.2\nsamples = 20\nvalue = [4, 32]\nclass = negative", fillcolor="#52a9e8"] ;
2 -> 3 ;
4 [label="gini = 0.46\nsamples = 9\nvalue = [9, 5]\nclass = positive", fillcolor="#f3c7a7"] ;
2 -> 4 ;
5 [label="Age <= 57.5\ngini = 0.29\nsamples = 104\nvalue = [132, 28]\nclass = positive", fillcolor="#eb9c63"] ;
1 -> 5 ;
6 [label="gini = 0.22\nsamples = 79\nvalue = [110, 16]\nclass = positive", fillcolor="#e99356"] ;
5 -> 6 ;
7 [label="gini = 0.46\nsamples = 25\nvalue = [22, 12]\nclass = positive", fillcolor="#f3c6a5"] ;
5 -> 7 ;
8 [label="muscle stiffness <= 0.5\ngini = 0.06\nsamples = 128\nvalue = [6, 200]\nclass = negative", fillcolor="#3fa0e6"] ;
0 -> 8 [labeldistance=2.5, labelangle=-45, headlabel="False"] ;
9 [label="sudden weight loss <= 0.5\ngini = 0.02\nsamples = 74\nvalue = [1, 118]\nclass = negative", fillcolor="#3b9ee5"] ;
8 -> 9 ;
10 [label="gini = 0.04\nsamples = 33\nvalue = [1, 52]\nclass = negative", fillcolor="#3d9fe6"] ;
9 -> 10 ;
11 [label="gini = 0.0\nsamples = 41\nvalue = [0, 66]\nclass = negative", fillcolor="#399de5"] ;
9 -> 11 ;
12 [label="Polyuria <= 0.5\ngini = 0.11\nsamples = 54\nvalue = [5, 82]\nclass = negative", fillcolor="#45a3e7"] ;
8 -> 12 ;
13 [label="gini = 0.43\nsamples = 12\nvalue = [5, 11]\nclass = negative", fillcolor="#93caf1"] ;
12 -> 13 ;
14 [label="gini = 0.0\nsamples = 42\nvalue = [0, 71]\nclass = negative", fillcolor="#399de5"] ;
12 -> 14 ;
}