digraph Tree {
node [shape=box, style="filled, rounded", color="black", fontname="helvetica"] ;
edge [fontname="helvetica"] ;
0 [label="Polydipsia <= 0.5\ngini = 0.44\nsamples = 265\nvalue = [138, 278]\nclass = negative", fillcolor="#9bcef2"] ;
1 [label="visual blurring <= 0.5\ngini = 0.47\nsamples = 137\nvalue = [129, 81]\nclass = positive", fillcolor="#f5d0b5"] ;
0 -> 1 [labeldistance=2.5, labelangle=45, headlabel="True"] ;
2 [label="Polyuria <= 0.5\ngini = 0.39\nsamples = 94\nvalue = [100, 37]\nclass = positive", fillcolor="#efb082"] ;
1 -> 2 ;
3 [label="gini = 0.23\nsamples = 76\nvalue = [98, 15]\nclass = positive", fillcolor="#e99457"] ;
2 -> 3 ;
4 [label="gini = 0.15\nsamples = 18\nvalue = [2, 22]\nclass = negative", fillcolor="#4ba6e7"] ;
2 -> 4 ;
5 [label="Age <= 49.0\ngini = 0.48\nsamples = 43\nvalue = [29, 44]\nclass = negative", fillcolor="#bcdef6"] ;
1 -> 5 ;
6 [label="gini = 0.0\nsamples = 13\nvalue = [0, 27]\nclass = negative", fillcolor="#399de5"] ;
5 -> 6 ;
7 [label="gini = 0.47\nsamples = 30\nvalue = [29, 17]\nclass = positive", fillcolor="#f4cbad"] ;
5 -> 7 ;
8 [label="partial paresis <= 0.5\ngini = 0.08\nsamples = 128\nvalue = [9, 197]\nclass = negative", fillcolor="#42a1e6"] ;
0 -> 8 [labeldistance=2.5, labelangle=-45, headlabel="False"] ;
9 [label="Polyuria <= 0.5\ngini = 0.17\nsamples = 42\nvalue = [6, 60]\nclass = negative", fillcolor="#4da7e8"] ;
8 -> 9 ;
10 [label="gini = 0.49\nsamples = 10\nvalue = [6, 8]\nclass = negative", fillcolor="#cee6f8"] ;
9 -> 10 ;
11 [label="gini = 0.0\nsamples = 32\nvalue = [0, 52]\nclass = negative", fillcolor="#399de5"] ;
9 -> 11 ;
12 [label="delayed healing <= 0.5\ngini = 0.04\nsamples = 86\nvalue = [3, 137]\nclass = negative", fillcolor="#3d9fe6"] ;
8 -> 12 ;
13 [label="gini = 0.1\nsamples = 37\nvalue = [3, 54]\nclass = negative", fillcolor="#44a2e6"] ;
12 -> 13 ;
14 [label="gini = 0.0\nsamples = 49\nvalue = [0, 83]\nclass = negative", fillcolor="#399de5"] ;
12 -> 14 ;
}